<?xml version="1.0"?>
<opencv_storage>
<cascade>
  <stageType>BOOST</stageType>
  <featureType>HAAR</featureType>
  <height>24</height>
  <width>24</width>
  <stageParams>
    <boostType>GAB</boostType>
    <minHitRate>9.9500000476837158e-01</minHitRate>
    <maxFalseAlarm>5.0000000000000000e-01</maxFalseAlarm>
    <weightTrimRate>9.4999999999999996e-01</weightTrimRate>
    <maxDepth>1</maxDepth>
    <maxWeakCount>100</maxWeakCount></stageParams>
  <featureParams>
    <maxCatCount>0</maxCatCount>
    <featSize>1</featSize>
    <mode>BASIC</mode></featureParams>
  <stageNum>13</stageNum>
  <stages>
    <!-- stage 0 -->
    <_>
      <maxWeakCount>2</maxWeakCount>
      <stageThreshold>-1.4594054222106934e-01</stageThreshold>
      <weakClassifiers>
        <_>
          <internalNodes>
            0 -1 14 3.1569719314575195e-02</internalNodes>
          <leafValues>
            -7.3809522390365601e-01 8.2666665315628052e-01</leafValues></_>
        <_>
          <internalNodes>
            0 -1 26 -3.9582901081303135e-05</internalNodes>
          <leafValues>
            -1. 5.9215468168258667e-01</leafValues></_></weakClassifiers></_>
    <!-- stage 1 -->
    <_>
      <maxWeakCount>1</maxWeakCount>
      <stageThreshold>9.7515529394149780e-01</stageThreshold>
      <weakClassifiers>
        <_>
          <internalNodes>
            0 -1 26 3.9990925870370120e-05</internalNodes>
          <leafValues>
            9.7515529394149780e-01 -1.</leafValues></_></weakClassifiers></_>
    <!-- stage 2 -->
    <_>
      <maxWeakCount>4</maxWeakCount>
      <stageThreshold>-6.1328154802322388e-01</stageThreshold>
      <weakClassifiers>
        <_>
          <internalNodes>
            0 -1 10 7.3358966037631035e-03</internalNodes>
          <leafValues>
            -8.5611510276794434e-01 6.6480445861816406e-01</leafValues></_>
        <_>
          <internalNodes>
            0 -1 24 8.9127626270055771e-03</internalNodes>
          <leafValues>
            -7.7261847257614136e-01 7.1456527709960938e-01</leafValues></_>
        <_>
          <internalNodes>
            0 -1 4 4.7470867866650224e-04</internalNodes>
          <leafValues>
            4.5524656772613525e-01 -1.</leafValues></_>
        <_>
          <internalNodes>
            0 -1 17 1.2207166037114803e-05</internalNodes>
          <leafValues>
            -8.3522748947143555e-01 5.6020545959472656e-01</leafValues></_></weakClassifiers></_>
    <!-- stage 3 -->
    <_>
      <maxWeakCount>4</maxWeakCount>
      <stageThreshold>-3.9079505205154419e-01</stageThreshold>
      <weakClassifiers>
        <_>
          <internalNodes>
            0 -1 15 3.4871995449066162e-02</internalNodes>
          <leafValues>
            -7.1951222419738770e-01 7.6623374223709106e-01</leafValues></_>
        <_>
          <internalNodes>
            0 -1 5 -7.1614085754845291e-05</internalNodes>
          <leafValues>
            -9.4396215677261353e-01 4.9965035915374756e-01</leafValues></_>
        <_>
          <internalNodes>
            0 -1 22 -2.5429611559957266e-04</internalNodes>
          <leafValues>
            5.9730553627014160e-01 -7.4217343330383301e-01</leafValues></_>
        <_>
          <internalNodes>
            0 -1 18 1.1734025974874385e-05</internalNodes>
          <leafValues>
            -7.3331081867218018e-01 6.7537379264831543e-01</leafValues></_></weakClassifiers></_>
    <!-- stage 4 -->
    <_>
      <maxWeakCount>1</maxWeakCount>
      <stageThreshold>5.0710898637771606e-01</stageThreshold>
      <weakClassifiers>
        <_>
          <internalNodes>
            0 -1 16 1.7021233361447230e-05</internalNodes>
          <leafValues>
            5.0710898637771606e-01 -1.</leafValues></_></weakClassifiers></_>
    <!-- stage 5 -->
    <_>
      <maxWeakCount>1</maxWeakCount>
      <stageThreshold>6.7368423938751221e-01</stageThreshold>
      <weakClassifiers>
        <_>
          <internalNodes>
            0 -1 16 -9.3482492957264185e-05</internalNodes>
          <leafValues>
            -1. 6.7368423938751221e-01</leafValues></_></weakClassifiers></_>
    <!-- stage 6 -->
    <_>
      <maxWeakCount>4</maxWeakCount>
      <stageThreshold>-5.3699314594268799e-01</stageThreshold>
      <weakClassifiers>
        <_>
          <internalNodes>
            0 -1 12 -1.7473874613642693e-03</internalNodes>
          <leafValues>
            5.6250000000000000e-01 -8.5714286565780640e-01</leafValues></_>
        <_>
          <internalNodes>
            0 -1 23 -1.1080097465310246e-04</internalNodes>
          <leafValues>
            4.6149462461471558e-01 -8.3057975769042969e-01</leafValues></_>
        <_>
          <internalNodes>
            0 -1 6 -1.4538695104420185e-03</internalNodes>
          <leafValues>
            7.2597581148147583e-01 -6.5423297882080078e-01</leafValues></_>
        <_>
          <internalNodes>
            0 -1 25 3.4797783882822841e-05</internalNodes>
          <leafValues>
            5.1288807392120361e-01 -1.</leafValues></_></weakClassifiers></_>
    <!-- stage 7 -->
    <_>
      <maxWeakCount>2</maxWeakCount>
      <stageThreshold>-2.1201142668724060e-01</stageThreshold>
      <weakClassifiers>
        <_>
          <internalNodes>
            0 -1 7 1.0455998126417398e-03</internalNodes>
          <leafValues>
            4.5116278529167175e-01 -9.4174754619598389e-01</leafValues></_>
        <_>
          <internalNodes>
            0 -1 21 -1.7800516798160970e-04</internalNodes>
          <leafValues>
            7.4457210302352905e-01 -6.6317421197891235e-01</leafValues></_></weakClassifiers></_>
    <!-- stage 8 -->
    <_>
      <maxWeakCount>3</maxWeakCount>
      <stageThreshold>-9.8332446813583374e-01</stageThreshold>
      <weakClassifiers>
        <_>
          <internalNodes>
            0 -1 9 -1.5189317986369133e-02</internalNodes>
          <leafValues>
            5.1794874668121338e-01 -8.2113820314407349e-01</leafValues></_>
        <_>
          <internalNodes>
            0 -1 8 -5.8672443265095353e-04</internalNodes>
          <leafValues>
            -9.5708870887756348e-01 4.0959259867668152e-01</leafValues></_>
        <_>
          <internalNodes>
            0 -1 13 3.1613726605428383e-05</internalNodes>
          <leafValues>
            -5.7177889347076416e-01 8.0581915378570557e-01</leafValues></_></weakClassifiers></_>
    <!-- stage 9 -->
    <_>
      <maxWeakCount>3</maxWeakCount>
      <stageThreshold>-1.2035183906555176e+00</stageThreshold>
      <weakClassifiers>
        <_>
          <internalNodes>
            0 -1 2 -9.5181239885278046e-05</internalNodes>
          <leafValues>
            -9.7979795932769775e-01 4.4292238354682922e-01</leafValues></_>
        <_>
          <internalNodes>
            0 -1 20 -1.7431366723030806e-04</internalNodes>
          <leafValues>
            4.3037712574005127e-01 -9.1948014497756958e-01</leafValues></_>
        <_>
          <internalNodes>
            0 -1 11 -1.4001090676174499e-05</internalNodes>
          <leafValues>
            6.5412157773971558e-01 -7.2696059942245483e-01</leafValues></_></weakClassifiers></_>
    <!-- stage 10 -->
    <_>
      <maxWeakCount>1</maxWeakCount>
      <stageThreshold>4.5871558785438538e-01</stageThreshold>
      <weakClassifiers>
        <_>
          <internalNodes>
            0 -1 0 4.3835316319018602e-05</internalNodes>
          <leafValues>
            4.5871558785438538e-01 -1.</leafValues></_></weakClassifiers></_>
    <!-- stage 11 -->
    <_>
      <maxWeakCount>1</maxWeakCount>
      <stageThreshold>4.3891403079032898e-01</stageThreshold>
      <weakClassifiers>
        <_>
          <internalNodes>
            0 -1 1 -1.7067669250536710e-04</internalNodes>
          <leafValues>
            -1. 4.3891403079032898e-01</leafValues></_></weakClassifiers></_>
    <!-- stage 12 -->
    <_>
      <maxWeakCount>2</maxWeakCount>
      <stageThreshold>-3.7186285853385925e-01</stageThreshold>
      <weakClassifiers>
        <_>
          <internalNodes>
            0 -1 19 2.3228089048643596e-05</internalNodes>
          <leafValues>
            -8.6776858568191528e-01 5.3299492597579956e-01</leafValues></_>
        <_>
          <internalNodes>
            0 -1 3 1.1654593981802464e-04</internalNodes>
          <leafValues>
            4.9590575695037842e-01 -1.</leafValues></_></weakClassifiers></_></stages>
  <features>
    <_>
      <rects>
        <_>
          0 0 1 12 -1.</_>
        <_>
          0 6 1 6 2.</_></rects>
      <tilted>0</tilted></_>
    <_>
      <rects>
        <_>
          0 0 1 24 -1.</_>
        <_>
          0 12 1 12 2.</_></rects>
      <tilted>0</tilted></_>
    <_>
      <rects>
        <_>
          0 0 2 12 -1.</_>
        <_>
          0 6 2 6 2.</_></rects>
      <tilted>0</tilted></_>
    <_>
      <rects>
        <_>
          0 2 2 22 -1.</_>
        <_>
          0 13 2 11 2.</_></rects>
      <tilted>0</tilted></_>
    <_>
      <rects>
        <_>
          0 23 12 1 -1.</_>
        <_>
          6 23 6 1 2.</_></rects>
      <tilted>0</tilted></_>
    <_>
      <rects>
        <_>
          0 23 18 1 -1.</_>
        <_>
          9 23 9 1 2.</_></rects>
      <tilted>0</tilted></_>
    <_>
      <rects>
        <_>
          2 9 4 4 -1.</_>
        <_>
          2 9 2 2 2.</_>
        <_>
          4 11 2 2 2.</_></rects>
      <tilted>0</tilted></_>
    <_>
      <rects>
        <_>
          3 0 16 1 -1.</_>
        <_>
          11 0 8 1 2.</_></rects>
      <tilted>0</tilted></_>
    <_>
      <rects>
        <_>
          3 0 18 1 -1.</_>
        <_>
          12 0 9 1 2.</_></rects>
      <tilted>0</tilted></_>
    <_>
      <rects>
        <_>
          3 9 21 9 -1.</_>
        <_>
          3 12 21 3 3.</_></rects>
      <tilted>0</tilted></_>
    <_>
      <rects>
        <_>
          4 7 8 8 -1.</_>
        <_>
          4 7 4 4 2.</_>
        <_>
          8 11 4 4 2.</_></rects>
      <tilted>0</tilted></_>
    <_>
      <rects>
        <_>
          5 8 2 1 -1.</_>
        <_>
          6 8 1 1 2.</_></rects>
      <tilted>0</tilted></_>
    <_>
      <rects>
        <_>
          6 18 10 6 -1.</_>
        <_>
          6 18 5 3 2.</_>
        <_>
          11 21 5 3 2.</_></rects>
      <tilted>0</tilted></_>
    <_>
      <rects>
        <_>
          8 6 2 2 -1.</_>
        <_>
          8 6 1 1 2.</_>
        <_>
          9 7 1 1 2.</_></rects>
      <tilted>0</tilted></_>
    <_>
      <rects>
        <_>
          8 11 12 5 -1.</_>
        <_>
          12 11 4 5 3.</_></rects>
      <tilted>0</tilted></_>
    <_>
      <rects>
        <_>
          8 11 12 6 -1.</_>
        <_>
          12 11 4 6 3.</_></rects>
      <tilted>0</tilted></_>
    <_>
      <rects>
        <_>
          9 23 8 1 -1.</_>
        <_>
          13 23 4 1 2.</_></rects>
      <tilted>0</tilted></_>
    <_>
      <rects>
        <_>
          12 4 4 1 -1.</_>
        <_>
          14 4 2 1 2.</_></rects>
      <tilted>0</tilted></_>
    <_>
      <rects>
        <_>
          12 5 1 2 -1.</_>
        <_>
          12 6 1 1 2.</_></rects>
      <tilted>0</tilted></_>
    <_>
      <rects>
        <_>
          13 6 1 12 -1.</_>
        <_>
          13 10 1 4 3.</_></rects>
      <tilted>0</tilted></_>
    <_>
      <rects>
        <_>
          13 9 11 4 -1.</_>
        <_>
          13 11 11 2 2.</_></rects>
      <tilted>0</tilted></_>
    <_>
      <rects>
        <_>
          14 18 2 4 -1.</_>
        <_>
          14 18 1 2 2.</_>
        <_>
          15 20 1 2 2.</_></rects>
      <tilted>0</tilted></_>
    <_>
      <rects>
        <_>
          15 5 1 4 -1.</_>
        <_>
          15 7 1 2 2.</_></rects>
      <tilted>0</tilted></_>
    <_>
      <rects>
        <_>
          15 8 5 4 -1.</_>
        <_>
          15 10 5 2 2.</_></rects>
      <tilted>0</tilted></_>
    <_>
      <rects>
        <_>
          16 7 8 8 -1.</_>
        <_>
          16 7 4 4 2.</_>
        <_>
          20 11 4 4 2.</_></rects>
      <tilted>0</tilted></_>
    <_>
      <rects>
        <_>
          22 11 2 12 -1.</_>
        <_>
          22 15 2 4 3.</_></rects>
      <tilted>0</tilted></_>
    <_>
      <rects>
        <_>
          23 6 1 15 -1.</_>
        <_>
          23 11 1 5 3.</_></rects>
      <tilted>0</tilted></_></features></cascade>
</opencv_storage>
